title,0,1,2,3,4,5,6,7,8,9,10,11,12,13,14,15,16,17,18,19,20,21,22,23,24,25,26,27,28,29,30,31,32,33,34,35,36,37,38,39,40,41,42,43,44,45,46,47,48,49,50,51,52,53,54,55,56,57,58,59,60,61,62,63,64,65,66,67,68,69,70,71,72,73,74,75,76,77,78,79,80,81,82,83,84,85,86,87,88,89,90,91,92,93,94,95,96,97,98,99
Carter_1978,-0.00019273319,-0.0020368977,-0.004466252,-0.0024983266,0.0033200204,0.0018201963,-0.0010780569,0.0020342623,0.00046137956,0.0036513708,0.00048197326,-0.0023650567,0.0028711632,-0.0010326033,0.0006581543,0.004376176,-0.0026236433,0.0020664528,8.908479e-07,0.0017001146,0.00093202264,-0.0033711381,-0.0001416202,0.002164836,0.0030166362,-0.0039523277,-0.0014315919,0.0033915946,-0.0034202007,0.0040545235,0.0035519837,0.0015155644,-0.0018078607,-0.004277888,-0.0039973855,-0.002224051,-0.0049000387,0.00025564828,0.0049172575,-0.0009858869,-0.0023098346,-0.0032263363,0.0035495441,-0.0020198955,-0.0040957034,0.00083033467,-0.000968922,0.002371023,-0.0022757645,-0.0015211113,-0.004049372,0.0019525643,-0.0013897464,0.004149499,0.0022872775,-0.0014439056,0.0035045291,0.0013566059,0.0026859264,-0.004395302,0.0024980616,0.004737942,0.003392487,0.00331717,0.0039151423,-0.0046142917,-0.0048030694,-0.0028017093,0.0030944434,-0.00028514382,-0.0021847778,-0.0027631167,0.00050221785,-0.0027499355,-0.0049201576,-0.0034255863,-0.0030266405,0.0012391239,0.0048075533,-0.004460673,0.0023494745,-0.0021210888,0.00030235358,-0.0028129758,0.0031411955,0.0024614166,-0.0036097332,0.0023903006,-0.0048787883,-0.004343115,0.0004060642,-0.001680576,0.0025023727,-0.002216238,-0.0007974466,-0.003970197,0.0019688634,0.0007545863,0.0023955554,0.0028665035
Carter_1979,-0.0025016838,0.0008745846,-0.0037020165,0.0035318928,-7.017678e-05,0.003694051,-0.0032355273,0.0011350724,-0.0028158128,-0.0022582496,0.00020980187,0.003584848,0.0022057074,0.002243686,-0.002407963,-0.0015778824,0.0010955147,-0.00074112264,0.0030972057,0.0012766791,-0.002222067,-0.0010517718,0.0025631373,0.0007470108,0.0026902538,0.0019582133,-0.0013317977,-0.0011662273,-0.0012803101,0.00034766024,-0.0014640589,-0.0013878406,-0.00039353917,-0.0049881544,0.0005092221,-0.00046525282,-0.00092842,-0.0017090818,0.0029347804,-0.0008694064,0.0043460294,-0.0033415565,-0.0034423186,-0.0039207214,0.0013068691,0.0003298974,0.0033903003,-0.00097628916,-0.0031718048,-0.0018414335,-0.0039844266,0.002581153,0.0033775382,-0.004768635,0.004253584,0.003718227,-0.0016793286,0.0022930778,0.002343827,0.0036486303,0.001912281,-0.0008466307,-0.0049393303,0.00048603956,0.0029208846,-0.0033172232,-0.0006722847,-0.0040548895,-0.0020957475,0.0033551867,0.0030818048,-0.0027396656,0.0038796873,-0.0035306728,0.00055140845,0.003440327,0.0013098607,-0.00012996331,-0.0028294052,0.0036904886,0.0016723267,0.0005135401,0.0012226516,0.0005819999,0.004352873,-0.004397135,-0.0040030866,-0.004006655,-0.0013369013,-6.7718756e-05,-0.003446527,0.0045245606,0.0040144827,0.0032639657,-0.0049240403,-0.003119921,-0.003592349,0.003673881,0.0016357742,-0.0048269294
Carter_1980,0.00055124203,0.00092488434,-0.0010462676,0.0010945061,0.0012801825,0.00057445734,0.0002812589,-0.0027369238,-0.0027484451,-0.0031804123,0.0013315728,0.0045356466,-0.0012255264,-5.4214488e-05,0.0009804744,-0.0033980159,-0.001047809,-0.0015471,9.200369e-05,0.0010323472,0.0035445634,0.0031248615,-0.00042272118,0.00034731385,0.0025915676,0.004830194,-0.0035593542,-0.004616105,0.0020826468,-0.001781913,0.0032700934,0.002157462,0.0043735886,-0.003301024,-0.0031153732,-0.0022006792,0.0036127109,0.000774264,-0.001545102,-0.001435092,-0.0010322564,-0.004359307,-0.00019118657,-0.0035823167,0.0015736611,0.0013163602,-0.0013675819,0.0011495022,-0.0035399995,-0.004610034,0.003878843,-0.0043164426,0.004361894,-0.0028682875,0.004364487,-0.0035248504,0.0047295126,8.991316e-05,-0.0045590345,-0.004933434,-0.0014537646,-0.0005553711,0.001319866,0.0032789195,0.003935582,-0.0010227738,0.0008504256,-0.0008696511,-0.0009472153,-0.0012404048,0.0013783864,-0.004566851,-0.0043626684,-0.0003129537,0.0011183203,0.0036157276,0.0015426892,-0.004448573,-0.00099343,0.00023828422,0.0021874453,0.004099555,-0.00435061,-0.001923025,0.00096347317,-0.0018489233,0.004679673,-0.0034409433,0.0021374868,-0.0002297469,0.0037818053,0.0034187536,-0.0026713088,0.0034684357,-0.002575144,-0.0007393334,0.004996536,-0.00089715316,-0.0025616332,0.0033475903
Clinton_1993,0.0035457134,-0.0029564092,-0.0019093326,-0.0017086192,0.0012617025,-0.0037621104,-0.002024749,-0.0019138436,0.0022672683,-0.0030765056,0.00022018237,-0.0005285399,-0.0025920703,-0.004251453,-0.002284964,0.0024308253,0.0015337282,-0.0041231904,0.0020847484,-0.0036738787,0.004476869,0.0008081252,-0.0020242382,-0.0035814962,0.00345514,-0.003590889,-0.0022145289,0.003067305,0.0031764528,0.0034637921,-0.004389123,-0.00497575,-0.0038976332,0.0033180006,0.0037971048,0.0030422383,0.001172268,-0.00055271346,-0.004185871,-0.0007985094,-0.0011932143,0.0020887014,0.0014112414,0.00389596,0.00334794,0.00032919695,-0.00067024503,-0.0045927246,-0.0017347378,-0.0041422825,-0.0002318158,-0.003287643,-0.0043536127,0.0005358234,0.0024195872,0.004729663,0.0005488502,-0.0029632265,0.0046491586,-0.0009346967,-0.0021655348,0.0030429135,0.001586311,-0.0047377246,-0.0012925579,0.0038208242,-0.004981926,-0.0019058649,0.0033137733,0.00022850244,0.0015042332,0.004149508,-0.0012401752,0.0037586198,-6.902794e-05,0.0008221163,-0.004321912,0.0016592975,-0.003304123,0.0008125096,-0.004693992,0.0041899965,0.0039829724,0.0021750205,0.004509212,0.0010192341,0.00036078147,-0.0027479774,-0.0032927971,-0.00028405312,0.0008414154,-0.003705648,0.0031745564,-0.004443986,0.0035322888,-0.0032367397,0.0022731144,0.0030352806,0.0003879654,-0.0045835483
Clinton_1994,0.0026885972,-0.001203521,-0.0033059905,-0.00297731,-0.0043345415,0.00048272652,-0.0011150745,0.0019263502,0.0023386842,-0.0032609499,-0.0012311994,0.00096574245,0.0016891214,-0.0018804318,-0.00012921271,0.002298982,-0.0014102989,-0.004088088,-0.0011336904,-0.001960509,0.0035676598,0.0020245088,-0.002606875,-0.0015788215,0.0036157388,-0.0019557723,-0.004172009,-0.0018313278,0.0041252314,-0.0036357786,-0.0012350125,-0.0004051479,0.00080180465,0.0017881361,0.0036806266,0.002648467,-0.0046767434,0.003587779,-0.0033004938,0.00053093664,0.0039433707,0.0017925544,0.004630014,-0.0031837653,-0.0030845508,-0.0040014107,0.00087732426,0.00488408,0.0028207097,0.00286282,0.0049889716,0.0011272174,0.0034956955,-0.0024187497,0.0007980242,-0.0035172189,-0.0002968831,0.00036554816,-0.002811141,0.0036073232,0.0007649933,-0.00094839855,-0.0030556687,0.0022892954,0.0016845029,-0.0014111734,-0.002364237,0.00061312283,-0.00038102557,-0.0027706374,0.003213788,0.0048895613,-0.002660968,-0.0025262453,-0.00023668013,-0.0013985505,0.004885444,-0.0024468328,0.00072306924,0.00066476717,-0.004989574,-0.0038331535,-0.0034002871,-0.00064051873,-0.0033371707,0.0022884784,-0.0034725654,0.0008667879,0.004952859,0.0033268468,0.004026567,0.0045238715,0.002516169,-0.0003295722,-0.0020820373,-0.0036488515,3.98363e-06,0.00045780622,0.0003834076,0.0020969177
Clinton_1995,0.0002731627,-0.0027112276,-0.0034028054,-0.0033491487,2.3565552e-05,0.00061821553,-0.0019794768,0.0006350627,0.00010641604,0.0007855826,0.0027396479,-5.912025e-05,0.00311665,0.002188404,0.0033416797,0.0026501627,0.003622684,-0.00025931452,-0.0030083654,0.0013935763,0.004181056,-0.00095497747,0.0049683917,0.003788169,0.0024603556,-0.0017893505,0.003678106,0.0039246767,-0.0010558737,0.0019124399,0.0009071412,-0.0009660954,-0.0021842127,0.0013846231,-0.0016895052,-0.0010046514,0.004956049,-0.0023077286,5.9295082e-05,0.0031926043,0.003124157,-0.0038044748,0.0014710124,-0.004871209,-0.0016385788,0.0001268267,-0.0037826584,0.004673309,-0.0015164952,0.003580542,-0.0030839264,0.0024223954,-0.0022684566,-0.002355342,-0.00054326624,0.0021677716,0.0007210933,-0.004028885,-0.0022545068,-0.0019265619,0.0019795338,-0.0024214252,0.0016546233,-0.00013012854,0.002115646,0.004170975,-0.0034967512,0.002424051,1.1676932e-05,-0.0031591083,-0.0022122418,0.004133265,-0.0019221063,0.0046094456,-0.0029768725,-0.00019598722,-0.0009535444,-0.0038958807,-0.0048679644,-0.004992377,-0.0038313724,-0.003540695,0.003341057,0.004823642,0.0009731271,0.0046344283,0.000904627,-0.0019949963,-0.0037824723,0.00057607936,-0.0040898374,-0.004857635,-0.0004343456,0.0036318335,0.002860979,0.0045652636,-0.0015247803,-0.002855343,-0.0040257256,0.00082333107
Clinton_1996,0.0011951715,-0.004538489,-0.004540733,0.00046949118,0.0015319267,0.0006912828,0.0013649998,-0.00015479304,-0.004425249,-0.0006769868,-0.0009580942,0.0014617632,-0.004229426,-0.000826438,-0.0034331982,-0.00075225893,0.0048846053,-0.0018004811,0.0017385195,0.003012915,0.0046409704,0.0017796062,-0.00051646295,-0.002388532,-0.004425043,-0.004500598,0.0018692461,0.00016747101,0.0018772954,-3.62829e-05,-0.0048464974,0.0027966192,0.0040320177,-0.0031233996,0.00084287964,0.0012410386,-0.0017008642,0.0022514095,0.0023685428,0.004155521,0.00051044876,-0.0037133633,-0.0009032611,0.004782594,0.0026439317,0.004684603,0.003253572,0.0025786462,-0.001818996,0.0018473067,0.00010112124,-0.00409598,-0.0019318227,-0.001727104,0.00017360508,0.0039904946,-0.0025056172,3.662337e-05,-0.002421398,0.0031430607,0.0034341607,-0.0017190491,-0.0010078601,0.0036312204,-0.002036382,0.0009215211,0.004478519,-0.0044215303,0.0029988398,0.0018296472,0.00258194,0.0013891862,-0.0018913187,0.0019649663,0.0034991645,0.0028477495,0.003392927,-0.0020377191,-0.0020736682,-0.0021494457,0.0026133782,-0.0040694503,0.004032549,0.004921522,0.0008294583,0.0025244574,0.0020725732,0.0013993098,-0.0012716906,-4.2926265e-05,0.0028558497,-0.0036287226,-0.0044447663,-0.0041275197,0.003978107,-0.0038866175,-0.00095299544,-0.0009801287,0.0010761688,0.0030149124
Clinton_1997,0.0034041216,-0.0027224724,0.0023843811,-0.002616487,0.0021220858,0.004510499,-0.0027884373,0.003431857,0.003056149,-0.0024459925,-0.004457661,0.0010506392,0.002021866,0.00094442326,0.0016536139,-0.0022142027,0.000621905,0.0016504065,0.0008639052,-0.0047189225,-0.00031587738,-0.0049564457,0.0006481932,0.0014512016,0.0021051995,-0.00096006837,0.0027554438,-0.0020869002,0.004000785,0.0008438394,0.0036105735,-0.0015819696,-0.0006603336,0.001979076,0.0020478128,0.001964464,0.0017511297,0.0010138376,0.0030375714,-0.0017504281,-0.0021638155,-0.0044655423,-0.001882223,-0.0046025477,0.0010552965,0.0009028391,-0.002516507,-0.0031436179,0.004959136,0.0018180531,0.004846761,0.00048542581,-0.002600116,0.0038504743,0.003878641,-0.0020187497,0.0047915895,0.0022147154,0.004011374,-0.00310252,0.00049875793,0.0010856738,0.0038732968,0.001467539,-0.0030488851,0.0033740764,-0.0049805352,0.0043154014,0.0036668363,0.0048106587,-0.0028029461,0.0042379443,0.0028712004,0.0027360574,7.4132586e-05,-0.00073572254,0.0044354936,0.0021261226,0.0009902294,0.0020896697,-0.0005940522,-0.0039463444,0.0023157692,-0.00070630945,-0.004058478,-0.00071076775,0.00325993,-0.0039918507,0.0012640004,-0.0031313787,-0.0011094982,0.002496465,0.0033438592,-0.0012887771,0.0031373932,0.0031979796,-0.0014602357,-0.002671876,-0.0036162203,0.0005312265
Clinton_1998,-0.0032413704,-0.0020319584,0.0022994804,-0.004897855,0.0028732794,-0.0021980857,0.00047247697,0.00485392,0.002264378,-0.0041694646,-0.0012287608,-0.0045636287,0.003843876,-0.002407926,0.002225649,-0.0035053005,-0.0031315216,-0.0021951373,-0.0004950468,0.003375026,0.004026367,0.0042298282,-0.003235411,0.004784343,-0.00059047405,0.0026960524,-0.00033970652,0.0025256278,-0.0022939346,0.0039241365,-0.0049675726,0.0008916566,0.00024992618,-0.0034081389,0.003724087,0.002818327,0.0027776381,0.0040014978,0.0044766855,0.004155149,-0.0009874522,-0.001924245,0.0040260875,0.00059074635,-1.4315681e-05,-0.00090867485,-0.0017184302,0.0047886195,-0.0046793628,0.004836541,-0.002746917,-0.0016438264,0.0016209015,-0.0008443931,-0.00035259922,-0.0026981472,-0.00011407463,0.003624667,0.0007886831,0.00093562534,0.0024073443,-0.0012656915,-0.00026960787,0.0016977952,-0.0037810667,-0.0028914297,0.0037024668,-0.0041222246,0.0010200263,0.0032952353,-0.0024151797,0.0016594762,0.0033710012,-0.004963709,-0.00019252568,-0.0028287405,0.0029219456,-0.00054579705,0.004268802,-0.0021649885,0.0041669314,-0.004366407,0.0030335896,-0.0031890932,-0.0017315883,-0.0039925757,-0.0008001309,-0.0011952734,0.0018758972,0.001525165,-0.0024727993,-0.0022071998,-0.002696063,0.002864602,-0.00413528,-0.0012028262,0.0037701372,-0.0026158544,-0.0031212224,-0.0022213561
Clinton_1999,0.0042022313,-0.0022289462,-0.0021481642,0.0013524996,0.0021636905,-0.0037245268,0.0014363223,0.0015530314,0.002315905,-0.002764711,-0.00043906388,-0.003513071,0.0034831322,0.00076912803,0.002564718,-0.0023472751,0.0019221823,0.0026330114,0.0020088619,-0.0010977326,0.00054409995,-0.004032137,0.0027563663,0.003418292,-0.001063849,-0.0031489874,0.0025726273,0.0016340209,3.2414224e-05,0.00434499,0.0009755781,-0.0026416876,0.0037033514,-0.00057049975,-0.00046098206,0.0021011666,-0.0032460534,-0.0005567885,-0.0022038023,-0.00020004521,0.0024690458,0.0013360467,0.0038197034,0.001028734,-0.004774932,0.00042087183,0.004504014,-0.00329922,0.004303871,0.0016944035,-0.002694,0.0024981098,0.0009086054,0.002344962,-0.000997193,-0.0033698415,0.0022950233,3.9579758e-05,0.004424011,0.004577485,0.0011900893,0.0016870362,-0.0006688095,-0.0031812391,-0.0016357962,-0.0046045,0.0030882885,0.0026278421,-0.0042621493,0.00084346725,-0.0011795644,0.0022985523,-0.0038408507,-0.0047406517,-0.0008983301,0.0022239971,0.00085440825,0.0017900406,0.0002550266,0.00080191926,-0.0040369774,-0.0036743514,0.0025420028,-0.003590465,0.00414826,-0.0024846888,-0.002264596,-0.0016079209,-0.00012653403,-0.004413663,0.003698174,-0.0017802737,-0.0028338034,-0.0034261774,0.0017638827,0.0026511247,-4.03887e-05,-0.003040521,-0.0029764874,-0.004651747
Clinton_2000,-0.0021986014,0.004498997,0.0016579856,0.0012836328,0.0009826408,-0.002310868,0.0020497176,0.00088639517,-0.001175695,-0.0034123717,0.0049922434,0.0045865597,0.0018415847,-0.0042569446,0.0013002164,-0.003315078,0.00034501505,-0.003830887,-0.0010121344,-0.0024807751,-0.0034351242,0.0025835035,-0.0011254728,0.000666662,0.0026042545,-0.0020585079,-0.0031049876,-0.003960163,-0.0010222985,0.0035205896,0.004555576,-0.00093878806,3.555574e-05,-0.0020521889,0.0038293665,-0.0041982336,-0.0047693104,-9.102059e-05,-0.0038627603,0.0020167155,-0.004435314,-0.0021179141,0.0013368251,0.0027090325,0.0037722196,-0.0010485029,0.0045335917,0.0006666602,0.002961144,0.0020869814,0.0005964904,0.0013849911,0.0020418111,0.0041815485,0.0013402826,0.004055974,-0.00012147235,0.0013248848,-0.00074393407,0.00138917,0.0034960094,0.001711031,-0.00086797215,0.0046500494,0.002099965,-8.364345e-05,-0.0042192084,0.0007579322,-0.004539517,-0.0045300205,-0.0046921717,-0.0015861426,-0.0036163516,-0.00024266627,0.004898338,0.0035154351,0.003208315,-0.0030952084,0.00464518,0.00210732,0.0021556553,-0.0005706219,-0.0034715137,0.0026512258,-0.0002544384,0.001657511,-0.004034934,-0.0009830346,0.0018543584,-0.0005017158,-0.0033429945,0.0025621213,-0.0008646136,-0.002445914,0.0016599414,0.00028281647,0.003530446,0.002957846,-0.0027311381,-0.0017407984
Johnson_1964,-0.0024983103,0.000135046,0.0030090252,0.0023929025,-0.0031810855,0.0010982597,0.00062846375,0.0033664787,0.00495144,0.003742207,0.004496002,-0.0044819503,-0.0009441035,0.0014012128,0.0005567748,0.0036097835,-0.0010172534,-0.0019135207,-0.00015527812,0.002035273,-0.0016241065,-0.0016047182,-0.0043761185,0.004677817,-0.0035490834,-0.00334219,0.00066969136,0.001737683,0.0036171963,0.0010278038,-0.0029231717,0.00040750907,0.0016117424,-0.0044765915,0.00426976,-0.00040030418,0.00077527936,-0.0035557777,0.001638695,-0.002399902,-0.0049013863,-0.0023221034,-0.004131657,0.004332515,0.0005339525,-0.0041713314,-0.004302832,0.00043715473,-0.0020606406,-0.0031436759,-0.0047509437,0.0023032536,-7.87037e-05,0.002640458,-0.00411925,0.0026849604,0.00046131053,0.0017521688,-0.0021692677,-0.0049321637,-0.00072148367,-0.00013857604,0.0015356436,0.00094884774,-0.0023724686,0.001522666,-0.0010595914,0.0029703348,0.0047533796,0.0039711413,-0.0049945526,0.0031881686,-0.000248292,-0.0042314925,0.004280607,-0.00033780106,-0.004093768,-0.0029548963,-0.0025412084,0.0038322024,-0.0023351868,0.0015850711,0.002486221,-0.0044930484,-0.0027055778,0.0022374229,0.004921224,0.0046766787,-0.003635245,0.00036744704,0.0017845867,0.0008289473,0.00041872243,0.0049391193,0.0020333878,0.0013228757,0.002199461,-0.0016815409,0.00045945798,-0.0012881766
Johnson_1965,-0.0008957835,0.0043817167,0.0022904319,0.0008242569,-0.004399774,0.0043814224,-0.00057972316,0.003278429,0.0026427351,-0.0047887024,0.0023692886,0.0024234655,-0.0032173921,0.0038786319,-0.0011711146,-0.0006621904,8.5865206e-05,0.0028601973,0.004164919,0.0034941195,0.002602569,-0.0049634576,0.0037112513,0.0032234255,-0.0017184456,6.675263e-05,0.004400145,-0.0010643239,0.0018289515,0.0048144823,-0.000550311,0.004938389,0.004097249,0.003981096,0.0018136901,-0.0045430255,0.003962271,-0.00022468773,0.0033640536,-0.001278495,0.0027356753,0.0024464596,0.0007227137,-0.0048530474,-0.0046903654,0.001407847,0.003412764,-0.0010369929,-0.0009601456,0.0017602264,-0.0014036909,8.9538415e-05,-4.9259725e-05,0.0012198674,0.00027392115,-0.0036887024,0.0027749187,0.002003962,-0.0022458895,0.0011174729,0.0019650315,-0.0027353682,0.0007653414,0.0040192804,0.0033497072,-0.003911157,-0.0046898774,0.000949284,0.0038875623,0.0036924654,3.369861e-05,-0.0035033943,-0.000265943,0.0031664134,0.0015032063,0.0036267957,-0.0018395149,0.0019129165,-0.00045092474,0.0025312144,-0.00013125721,-0.00011369034,-0.0008467375,-0.002797232,0.0027681896,0.0012682874,0.0044467966,-0.00014779434,0.0009765024,-0.0019976264,-0.0012161455,-0.0020398868,-0.0014375425,0.0046931715,-0.0016947972,-0.0034782991,-0.0034010308,-0.0025009825,0.004985655,-0.0025971348
Johnson_1966,-0.0030422914,0.00026384083,0.004217824,-0.004111553,0.0024381313,-0.0010593422,-0.00014766546,0.00067329383,-0.0013998867,-0.004337616,-0.0023535602,-0.003042038,-0.0035067885,0.0013905661,-0.0027278299,0.004476477,0.0021056372,0.004419681,0.0019049575,0.0045097065,0.0018656896,-0.0039802482,0.0040003015,0.0028050279,0.00309486,0.0039957273,-0.0025763582,0.0010201584,-0.0047651157,0.0015661442,0.0044801263,0.0029742566,-0.0005218225,0.0032547445,0.0011473992,-0.0043443064,5.644651e-05,0.0047920207,0.0005468613,0.0013446788,0.00063851493,0.003499523,-0.0035180794,-0.0019253966,-0.0022491016,-0.0005301892,0.000119259064,0.0009373467,0.0038378802,0.002015038,-0.0014399384,0.0023289423,0.003488858,0.0007149983,0.0044297553,-0.0023255635,0.0035133834,0.0031591181,0.0035798422,-0.0031974833,-0.0041487915,-0.00079350104,-0.00046828462,-0.001984113,-0.0039609084,-0.002978175,-0.0026408075,0.0029503906,0.00396403,-0.00038472735,-0.0010935945,0.00045953767,0.002315146,-0.00041069783,-0.0024298849,0.0006451521,-0.00028270506,-0.002033384,0.003272448,0.002852661,-0.002416563,0.0012941934,0.0029745994,0.003396912,-0.004433923,0.0047360645,-0.0017660327,-0.0034543246,-0.0012177493,5.9648105e-06,-9.444765e-05,-0.0024693357,-0.0024265668,0.0040336456,0.0018313555,0.002041924,-0.0007919833,0.00052996643,0.0019128106,-0.00028981184
Johnson_1967,-0.0015571557,-0.0036566658,0.00010353619,-0.003694453,0.004429311,-0.00022216195,-0.0045920094,-0.004358491,0.003759285,0.0021041401,-0.0039790375,0.0032932148,0.003420563,-0.0032345622,0.00021530017,-0.001546896,-0.00067572336,-0.0029862407,-0.0027425545,0.0002554575,0.0018797037,0.0029999313,0.0038328087,0.0008615935,0.0028747644,0.0026801163,0.0022934233,0.0009542541,-0.002588549,0.0034028774,0.002782581,0.0025693497,0.0013839784,0.004854949,-0.0027612436,0.0018644222,-0.00020957664,-0.0009142138,0.00079942954,0.0007611742,-0.00025525485,-0.0015282796,-0.0012890821,-0.0043477216,0.00080511783,0.00017007855,0.0041695135,0.0031142398,5.831757e-05,0.00093679165,0.0017882133,0.0047310055,0.0017568892,-0.0026483128,-0.0014046007,0.0038329,-0.001284745,0.0010868473,-0.0009511762,-0.0031793246,-0.00030748022,-0.004710167,-0.00151738,0.0012760367,0.0015418571,-0.0019995503,-0.003374344,-0.0032493775,0.004709286,0.0045766206,0.004940243,-0.0013159796,0.0006673594,-0.0045030396,-0.004372926,0.0026349395,-0.0019693843,-0.0045338334,8.7571105e-05,-0.0018383967,0.0031155706,0.0005307341,0.00016507822,0.0044644605,0.0048132767,-0.0015644039,-0.0045750565,0.0025779826,0.0033286067,-0.0002741808,-0.004166078,-0.0022076822,-0.0036353082,-0.0047465875,-0.0018737237,-0.003079198,0.003953921,0.0047169547,-0.0035941892,0.0041182884
Johnson_1968,0.003825811,0.0024989033,-0.003419584,0.004904417,-0.00031914862,-0.0032766059,-0.0035994262,0.0025482292,-0.004492769,-0.001573455,0.0037876794,-0.0029098121,0.0022588659,0.0030640413,0.003421997,0.0012625579,0.0040671243,0.00361709,0.0026353071,0.004849164,-0.0002466867,-0.0015571662,-0.002176664,0.00041732544,0.0030204512,-0.0023750712,-5.264817e-05,0.0017867596,-0.0036882078,-0.004350964,-0.00014726282,0.0035265149,0.00017384972,-0.004137198,0.00488868,0.0015374533,0.0005310111,-0.0015999681,0.00075371074,0.0019233709,-0.0044364408,0.00013079532,0.00037723375,0.0025204383,0.002912774,-0.0047304295,0.0014936981,-0.0017972765,-0.00486399,0.0037665037,0.0002889713,0.0015860891,-0.0008661043,-0.002857311,-0.002913978,0.0026727815,0.0029320605,0.0041419226,0.0019236899,-0.001752932,0.0010687202,0.0029619776,0.003696849,0.0028851656,-0.00051516,0.0037851788,-0.004620218,0.0037823464,8.475121e-05,0.004672003,-0.0049683647,-0.0038787697,-0.003536584,-0.0039221207,0.004464055,-0.0030667768,-0.00429959,-0.0024966695,0.0014551098,-0.0019150896,-0.0013539338,-0.0037760644,-0.0006520084,0.0033706627,0.0049849837,-0.0031864836,0.00035973542,0.0049957884,0.004604505,-0.002918072,-0.0010347131,0.0035482123,0.000915748,-0.000661693,-0.0035323892,0.0041873064,0.004568225,0.0014830875,0.0047178017,-0.0014921969
Kennedy_1961,-0.004270831,0.00405314,-0.0019398563,-0.0034439764,-0.003504465,-0.0038634168,-0.000949426,-0.0014202256,-0.0030009567,0.00050215353,-0.0023521888,-0.002706933,-0.00095646805,0.0021940225,-0.0037703975,-0.0039667347,-0.0047198227,0.0008027189,-0.0014474824,-0.0015781963,0.004416217,-0.0014325815,0.0042005354,0.0029719763,0.0013171339,0.0025334675,-0.0042131627,-0.0017014296,-0.002754199,0.004054777,0.0029987304,0.004042257,0.003559813,-9.307717e-06,0.0018363202,-0.00091506244,-0.0043500056,-0.0018789571,0.003361561,-0.0013689995,-0.004890488,0.00353144,0.0035352898,-2.169658e-05,-0.0045003095,0.004069847,-0.0026290917,0.001224535,0.0043027727,-0.004438784,0.0049545956,-0.00356969,0.0044188504,0.000607165,-0.0044264365,-0.001181313,-0.00304143,0.003138159,0.0038608564,0.0043508536,0.00041546012,-0.0006601615,0.0034235285,-0.002938561,-0.00026946474,-0.0015639672,-0.0013267874,0.003580433,-0.0025083234,0.0040792893,0.004117394,0.0012483485,0.0010213854,-0.0033036536,0.004698794,0.000648364,0.004230098,0.0008149258,-0.0012857424,-0.0026313933,-0.0018724656,0.00017935887,0.003594584,0.0045847776,-0.0019628708,-0.0028127565,-0.0018293052,-0.0046910453,-0.00026455778,-0.003751597,-0.002527409,-0.003647008,-0.00338967,0.004915186,-0.004311249,-0.0036932,0.0003433768,0.0015333553,8.274805e-06,0.00043444504
Kennedy_1962,0.0024193102,-0.0011482514,-0.0011561285,0.0006003717,0.00419137,0.0022184434,-0.00395346,0.004774289,0.004899895,-0.0009828553,0.0030822875,0.00028706767,-0.004317017,-0.004350284,-0.0032460948,0.0025110773,-0.001594282,5.327081e-05,0.0015695653,-0.0042553665,0.0035996404,-0.0021419157,0.001851934,0.0035047987,-0.0018268822,0.00012404361,-0.00050686864,0.0031046055,-0.0029261215,-0.0043995124,0.0029133654,0.0034528798,0.0031090945,0.0039620255,-0.0036123716,-0.0022905513,-0.0042771227,0.0045695207,-0.0019468291,-0.0049218372,6.42029e-05,0.0023351104,0.0015322244,0.004472649,0.0036706845,0.0043031033,-0.003906902,0.0015799409,0.004513129,0.00011595682,-0.0027611647,0.0012492387,-0.004875618,-0.0018457819,0.00033788846,-0.0048095398,-0.0009306053,0.00084907195,-0.00045314583,-0.004185221,-0.0037460676,0.0010864589,0.004896337,-0.00047510923,0.0029586297,0.004443656,-0.0004891233,0.0040146383,0.002233972,-0.0033300892,0.0045137447,-0.0014555013,0.0025970694,-0.0029660347,0.004185384,0.0029990745,0.001375993,-0.0011204005,0.0043022996,0.0026660673,0.00070946437,-0.002121892,-0.00058462995,0.003941426,-0.0022218365,-0.0035661962,-0.0011746985,-0.004060494,-0.0026656473,-0.0012867533,0.002596084,0.0037894407,-0.00015407096,3.407735e-05,0.0021098012,-0.0033436154,-0.004256031,-0.0008926581,0.0044982317,-0.0047441414
Kennedy_1963,-0.0026792712,-0.0038108502,-0.004386027,0.0044618202,0.0017693364,0.0019116502,0.0023807515,0.0015794281,-0.00048046137,0.0013546026,-0.004874,0.0006691959,0.004723754,-0.002663977,0.0021011713,-0.0015178869,0.0030148516,0.0021952929,0.002581626,-0.0005581059,0.0038012804,-0.00452017,-0.0004201335,-0.0019436746,0.002723601,-0.0021722147,-0.0020599868,-0.00047473412,0.0042257262,-0.0023218396,0.002144683,-0.0036551675,-0.003988042,-0.001766119,0.0013825243,0.0039939047,0.0035143255,-0.004229464,0.0047408068,0.0023029568,-0.00090703997,0.0016596759,0.0015074877,0.0024805034,-0.0031275721,-0.0009818675,-0.00015118353,-0.0023875474,0.0010046217,0.002273865,-0.0035674195,0.0041042883,-0.0006773932,0.00032136153,-0.00026322436,-0.0032359543,-0.0017372995,-0.00338065,0.0020013773,-0.003043114,-0.0021849475,0.0043773525,-0.00084368186,0.0009828076,0.0005089915,0.004396245,-0.0010572223,0.0013939627,0.0031446784,-0.0017510352,0.0035348807,0.0014039746,-0.0032722321,-0.0026705414,0.0016866655,-0.0030754863,-0.0047258288,-8.2043065e-05,-0.0010066635,-0.0011766396,-0.004914295,0.001006909,0.0007245928,0.0040790997,-0.0023875348,-0.0011073824,-0.0036802688,-0.004240552,0.0008819903,-0.0005773624,-0.0029465018,-0.0017283156,0.0018210094,0.0022161894,0.0047502476,0.00092148175,-0.0007635303,-0.0012385268,0.0044496516,0.0034838282
Obama_2009,-0.0026652184,0.00094067917,-0.0019000131,0.0046216967,0.0010449215,0.0032042987,0.0047336384,-0.003196007,-0.0044857375,0.0024280197,0.0042673955,-0.0014046802,0.002989061,-0.0042440766,-0.0042956416,0.0009341546,0.00022395173,-0.0027969133,-0.004709408,-0.002649374,-0.0033259196,-0.0038051943,-0.0004776583,-0.0009762218,0.003881053,0.0037649344,0.0016765271,0.0007852216,0.00066417066,-0.0045536696,-0.0010269425,0.0014319986,0.0022215983,-0.004574789,-0.0018902095,0.0016452038,0.0036765141,-0.0033214937,-0.0017535456,0.002910785,-0.00012883218,-0.0010992528,0.0012341139,-2.564746e-05,-0.0006298291,0.0003203134,-0.0030006664,0.0014131622,0.0033112369,-0.0046181562,-0.0007205351,0.0049788165,0.0042974884,-0.0030056585,-0.0013399295,-0.0030146034,-0.004236145,-0.0011107889,0.0016360203,-0.004020575,0.0024810939,0.0011453214,-0.0026407167,0.0023642497,-0.0013500655,-0.00041479297,0.0012787523,0.0030551292,-0.0037723277,3.0229801e-05,0.004417979,-0.0019808444,0.0013303343,0.0031278972,0.002552048,-0.00035168722,-0.0042754468,-0.002698041,-0.0012344128,-0.0039220704,0.0019918708,0.0007856589,0.0042443243,-0.0022456734,-0.002522712,-0.002204662,-0.0016467659,-0.0032484448,-0.003957823,-2.0523026e-05,0.0033805165,-0.0040018754,-0.00042910827,0.004950009,0.0036412736,0.0045756917,0.0049478146,0.0011687162,0.0020509688,0.0047204234
Obama_2010,-0.0033313339,0.0029605094,0.0010051591,0.00039023222,-0.0032937047,-0.0042550345,0.004783512,-0.0006913968,0.0012442488,0.0041143056,-0.0007828125,0.0031241346,0.0018032532,-3.8203056e-05,0.004283826,-0.002363796,0.00094267307,-0.0041568303,-0.002921197,0.00043872945,6.4103595e-05,-0.0027804081,-0.002904281,0.004856692,0.0017630686,0.0030515983,0.004338131,0.0044163205,0.004432183,-0.0014348688,-0.001362277,7.257106e-05,0.004741017,-0.00063035457,0.0015846109,-9.6128424e-05,-0.0022131405,-0.001040357,-0.004763299,0.002941678,0.00075352896,-0.0023179473,-0.0021146352,-0.003934215,-0.0019218612,-0.0031079203,-0.0039055832,-0.0033423905,-0.0006632551,-0.0025225547,0.00028571312,0.0025862248,-0.0049192584,0.0011288081,0.002822272,-0.0005773372,-0.002437317,0.0020621985,-0.0022407884,-0.0014327262,-0.0011686343,-0.00036824297,0.000111307505,0.00014956723,-0.0027426854,-4.4563865e-05,0.0022717768,-0.0024599612,1.9859193e-05,-0.002510045,-0.0033796884,-0.0017549869,0.0032468317,0.0036393763,-0.0025322007,1.6833284e-05,0.0029161023,7.500156e-05,0.0018005751,-0.0004884138,0.0033865976,0.004141113,0.0035937843,-0.002279691,0.0015387934,0.0034802912,0.0045300527,0.00058529875,0.0005811948,0.0047829608,-0.0022461638,-0.00015893599,0.0019713696,0.00040484683,-0.0003106968,-0.0031767595,-0.0034439103,-0.0015443091,-0.001798003,-0.0033878232
Obama_2011,-0.0015646251,-0.0041812193,0.00340492,0.004947002,-0.002473889,0.0013970907,0.001445365,-0.00034604123,0.004910205,0.0022443843,0.0018468619,0.004692508,-0.003369274,0.0033123598,0.0036382754,-0.0029765985,0.00011096542,0.0013349849,0.0013993987,-0.00011736534,-0.00084117264,0.0017658278,0.00024378618,-0.00062971597,-0.001636438,-0.003986238,-0.001968407,-0.0029832849,-0.004157117,0.004887306,-0.0016233022,0.002202484,0.0032095674,-0.0014735484,-0.0030129552,0.0041306973,-0.0016842654,-0.0029553205,0.0034946154,-0.004513685,0.002548886,-0.0014497859,0.004025622,8.608114e-05,-0.0016882571,-0.0035970032,0.0021812788,-0.0036422096,0.0021293857,-0.0018839183,0.001165681,0.00063334464,0.0012995537,0.0045950846,0.0022257722,-0.0021353827,-0.001804942,-0.0016573423,-0.0031013729,-0.0011063741,0.0012060758,4.2809803e-05,0.004615541,0.004576387,0.0036116168,0.0019906263,-0.00041314683,-0.0020439343,-0.0009970067,-0.0024435413,-0.00033593076,-0.00229192,0.0019513564,0.0017089369,-0.0040873596,-0.0037525978,-0.0004296453,0.003368303,-0.004979771,-0.0030485347,-0.003731813,-0.0008522029,-0.0027136838,0.0005924594,-0.0033473733,-0.00071378093,0.0027129082,-0.004932535,-0.004363429,-4.05103e-05,-0.00074732426,0.0014978676,0.0018450553,-0.002985374,-0.0037317562,-0.0031823053,0.0041947607,0.0023983764,-0.0049441354,-0.00014720573
Obama_2012,-0.0018578334,0.0004586637,0.0010087197,-0.0048905145,-0.0030197618,-0.0028933936,0.0019521682,-0.001995643,-0.004971546,0.0033554148,0.004242703,0.0021347923,0.0010851851,0.0009975372,0.0020990584,-0.0022613485,2.6495916e-05,0.0039530885,0.0003803232,-0.0017508378,-0.0047193486,-0.004227465,0.0038274666,0.0003095512,0.0016077555,0.0048032394,0.0025638454,-0.0023211357,0.0014938792,-0.00027984317,-0.0013748143,0.0034833956,0.0014140725,2.886702e-05,-0.0010675985,0.0008853896,-0.00022716336,-0.0011415302,0.0019577225,0.0030004936,0.003767199,0.0032685054,0.00036510915,-0.0010808572,-0.0024454233,-0.0009633398,-0.0041220076,0.0010615882,-0.0046228804,-0.0010552806,0.00012959087,0.0025802425,-0.0035287808,0.0007999871,-0.000121961115,-0.0015246687,0.0033457358,0.001231238,-0.0043999623,0.0029436094,0.001246205,0.002472029,-0.000100720186,0.0026441119,-0.0002075275,-0.0049123936,0.0032886995,0.00033194773,-0.0014046448,0.0016347344,-0.00053688214,0.0048165447,0.0026918876,0.0012908654,-0.0026191936,0.004458929,-0.002456387,0.004496505,0.003455947,0.0014946073,0.0011917258,0.003986536,-0.0007641157,0.0042214375,0.0015072958,0.0045882463,0.001948242,-0.004368799,-0.0034334476,-0.0042145657,0.003560895,0.00087805674,-0.0032354333,-0.0017435689,0.0043098247,-0.00035881394,-0.0036736936,0.004166027,-0.0042924057,0.003236929
Obama_2013,0.0040853745,-0.0015326914,0.0014129876,0.004059898,-0.0012386867,0.0033132404,0.00018136286,-0.004329342,0.0041205026,-0.0004047275,-0.0031782938,-0.004344022,0.0013540474,-0.0022326517,-0.0017349082,-0.0019347408,-0.0021386333,0.0026046727,0.0041534123,-0.00039498502,0.00087559724,-0.0032323038,0.0045472356,0.0047144056,0.0023041938,-0.0014443311,-0.003108312,-0.0035402302,-0.0017456824,0.00026421237,0.0023089012,-0.0009954015,-0.0046904027,-0.0011846771,0.0021748443,0.001941741,-0.0010185225,0.003611419,-0.0020034164,-8.077036e-05,-0.0027455166,-0.002684947,0.0033924237,0.0027765674,0.00039042084,-0.0033985577,-0.0045040343,-0.0024402915,0.0010034275,-0.0012033313,0.003755841,0.004973603,0.0011153475,0.0024980248,-0.00013399754,-0.0028629086,0.0028601887,0.0037297723,-0.0027476884,0.00087806437,0.00042351513,0.0006632546,-0.0025865638,-0.0015393475,-0.004592442,-0.0014206083,0.0014487393,-0.001943086,0.0029314347,-0.004958207,0.0018519014,-0.00019464747,0.0039556436,-0.0033451056,-0.0020405177,0.000631842,-0.0013968545,0.0034193245,-0.0020741986,-0.002658823,0.0028879044,0.0039602937,-0.0034675947,0.00058487535,-0.0014483209,0.0038241718,0.001666042,0.001670408,0.0031313063,0.003407327,-0.0007629934,-0.0017902838,0.004984832,-0.0032984158,-0.00073115696,0.0021949494,-0.0019626645,-0.0030629549,0.0022915858,0.0005437643
Obama_2014,0.0008506549,0.0019092024,0.0034106488,-0.0012983797,-0.0048088008,-0.0016753213,0.00068462495,0.0021821752,0.0020649862,0.000111097856,-0.0008649264,-0.0010520401,0.0016538728,-0.004834338,0.004943085,0.004842626,0.0020674723,0.0009886863,-0.0029571243,0.0038904268,0.0019264315,0.00038043392,0.0006353353,0.0018110257,0.00057156174,-0.004796563,0.0023915435,0.0006508496,0.0038578864,0.0047364673,-0.001126418,0.0018602409,0.0019841492,0.0040530274,-0.003943383,-0.0010500748,0.0011021617,0.0014498989,-0.0046151485,-0.00033849938,0.004675201,0.0028197113,-0.0037169384,-0.0036371076,-0.0035749616,-0.0045082364,0.0003169764,0.0013566834,-0.00047140667,-0.0035075515,0.0044577876,-0.0049133534,0.0029210027,0.0031886215,-0.0020249798,-0.0037737808,0.002849113,-0.0034461897,-0.0014038696,-0.0004083,0.0018228202,0.00445185,0.0042546103,-0.0021170266,-0.0023183695,0.0027968315,0.0005340164,-0.0044128248,0.0010293286,-0.0041470868,-0.0013876407,-0.0042475313,-0.00075197645,-0.0026932145,0.0016451773,-0.0004956388,-0.0027395634,0.00043117875,-0.0037699938,-0.0007745223,0.002627818,-0.0007570682,0.0021017927,0.0006979898,-0.00026275724,0.002525155,-0.0012001202,-0.0008344875,-0.0023112595,0.0021509347,0.0014428925,-0.0038844517,0.0036225151,0.0027682716,-0.0023809837,0.0022829184,0.0038866154,0.0033565734,-0.00045124197,-0.0017786333
BushGW_2001,0.00011716378,-0.004565752,-0.0021119018,0.0017849872,-0.0017301855,-0.00041787623,0.0010448396,0.0011021125,-0.002718217,0.0039282423,0.0037516905,0.0009992946,0.0022893602,-0.0048391847,-0.004881673,0.00024009764,0.00025543314,-0.0005712765,0.0010569985,-0.004971471,0.0041171857,-0.0018837559,-0.0046284082,0.00023131026,-0.0015589375,-0.000734699,-0.0048929728,-0.0027456807,0.0042117396,-0.003555202,0.004788495,0.003987033,-0.0020527705,-0.0025446017,-0.0025768732,-0.0039210385,0.004295843,-4.1175758e-07,-0.0036079516,0.002790904,0.004576001,0.0028089157,-0.0036954693,-0.0034540454,0.0031029282,0.0044944123,-0.0039214343,-2.4912035e-05,0.004944697,0.0008813636,-0.001323693,0.0011070494,-0.0016751408,0.000775134,0.003781429,0.0030263825,-0.004398213,3.7221253e-05,0.00032256232,0.0032598448,-0.002626105,0.004391403,-0.004143908,-9.806568e-06,0.0033175927,-0.0016317002,-0.002767659,-0.002739123,-0.003845665,0.004223237,0.003604428,-0.0008244225,0.002340613,-0.0018047113,0.0023834615,-0.0047103143,-0.004116618,0.0004416322,-0.0015792322,0.003025251,-0.0022198558,-0.0007577503,0.0027325533,-0.0037472157,-0.0035565856,-0.0008286777,0.003883823,-0.003957886,0.0016951197,0.0025214367,-0.0018522466,0.003478372,1.3813206e-05,-0.00041088785,-0.0006195248,0.0008907543,2.8046648e-05,-0.0029101893,0.0020613202,-0.00367512
BushGW_2002,0.00458283,-0.00034532984,-0.001749536,-0.003284498,-0.0031954227,0.0022223492,0.0007784488,0.0024299144,0.00021119158,-0.003537717,0.0005594064,0.0031739464,0.0044519547,-0.004747837,-0.004961021,0.0025090645,3.931622e-05,-0.0015927359,-0.0008060839,0.00104243,-0.00040276817,-0.0025758657,0.0011840769,0.0020780186,0.004853685,-0.003307175,0.0013125981,-0.002256906,0.0015736229,0.0025129227,0.0028907405,0.0016956123,0.00021589657,0.0005112226,-0.0014526536,-0.0039607724,-0.004204013,-0.0019123598,0.004817771,0.0030051493,-0.0039920993,3.152686e-05,-0.004471052,0.00454356,0.0005126547,-0.002692567,-0.0028396943,-0.0034508652,-0.0037189838,0.0024142752,0.0017389753,0.00032331664,0.0027516445,0.0038128742,-0.0033537594,0.0025333734,-0.0031621559,0.00213772,0.0026415281,0.00018233116,0.00066807197,0.0020996628,-0.0041574156,-0.002539673,0.0025137293,0.0048709433,-0.0047389017,0.0031139744,0.0022590503,0.0033700496,0.0001903585,-0.0047328454,-0.0012497305,3.3567554e-05,0.0027583179,-0.0013749948,0.0011285504,0.0043803942,-0.0031101168,0.00084729836,0.0017859399,-0.0039957445,-0.0020465972,0.0034417706,0.00035816236,0.004128377,-0.00077851274,-0.0020459546,0.0035358535,-0.0029456054,0.0037023928,-0.0034598468,-0.0021770431,0.0014674667,0.00458279,-0.00041580675,0.00048193583,0.0014288239,-0.0032495426,-0.002289995
BushGW_2003,-0.0010998584,-0.001367304,0.00075332384,-0.0016320546,-0.0022799224,-0.0023907195,0.004996913,-0.0007819704,0.0012231879,-0.00024937565,-0.0046193018,-0.0023342012,0.0007225172,-0.0047215433,-0.0032784566,-0.0038563362,0.00312027,-0.0025149707,-0.0039693043,0.0032621745,0.0019482442,-0.00463066,-0.0048467848,-0.004725798,-0.0002573343,0.001287095,-0.0031286266,-0.00146635,-0.00018701331,0.0010053118,0.004287984,0.00082674983,-0.00025729055,-0.0029509189,0.0013685568,0.0034944816,0.00060193235,0.00048395654,-0.003900475,-0.00084177795,0.0047832304,-0.00170536,0.00026004287,0.0046999883,-0.0008802295,-0.0025589615,-0.0028999464,0.0032392046,0.0045893565,-0.0011921043,-0.00094749924,0.004143949,0.0003233565,-0.0022874007,-0.0036209293,-0.0011368085,0.0037646329,0.0021751176,0.0025778017,0.0030041242,-0.00474612,0.0049196756,0.00036623358,-0.0031010201,0.0009840878,0.00042534678,0.0035148885,0.0021651688,0.0027261234,0.0047310297,-9.261966e-05,0.0028577554,5.4402306e-05,-0.0014436888,-0.0016636023,-0.0017579774,-0.0013408941,0.003984696,0.00018716176,-0.0041211485,-0.0041211317,-0.0014594356,0.0030755044,-0.0007155564,-0.002155577,-0.0013281546,0.0047321646,2.7539229e-05,0.00031267808,0.0023060872,-0.0026087775,-0.00041048304,-0.0017652804,-0.004477798,0.001055753,0.0042991475,0.00051588996,-0.0020481285,-0.0021941834,0.00021720263
BushGW_2004,-0.0019859497,0.00034733594,0.0033281145,0.0032725248,-0.00049480156,0.0036617299,0.0007836032,0.0037800171,0.0013560242,-0.0047163004,-0.0034242342,-0.00485502,-0.0045667263,0.002159826,0.0044010393,-0.0038237504,-4.2975615e-05,-0.0025377113,-0.003322123,-0.0033367944,0.0028286742,0.00022974229,0.00072800805,0.0012458166,-0.0025511256,0.0015988301,-0.0012712732,0.0011092956,0.0011354352,0.0006689172,0.0033342023,-0.0048850984,0.0005272893,-0.003449369,-0.001990308,4.170035e-05,0.003379835,0.0039081248,-7.668219e-05,0.003788886,-0.00088271743,0.0027134547,0.0016349546,0.0003173923,0.000344682,-0.0009119355,0.0047316197,0.0013802717,0.0042814775,0.0035399536,-0.0043725576,-0.00496103,-0.0047850073,-0.0041907695,-0.0035149346,0.0010676611,0.001052193,-0.0004382801,-0.00030322286,0.0033594791,0.0017186463,0.002097059,0.0005816374,0.0013560118,-0.0015458071,-0.002928498,-0.0042077596,-0.003095444,-0.0040676966,0.0042040898,-0.0019468402,-0.0030523986,0.0003866945,0.0026358808,0.0036448252,-0.0048899394,0.0038791467,-0.004804416,0.0027169418,-0.004046312,-0.0013287222,-0.0014727254,0.0034711263,0.0037213454,0.0019138177,-0.0032195519,-0.0013940335,-0.004955128,-0.0036073672,0.0032379255,0.0033994645,0.0047214534,0.0029113884,-0.0046045994,0.00070073165,-0.0033150928,0.0032516401,-0.0017706513,-0.0025111472,0.00416971
BushGW_2005,0.002242183,0.0006463424,0.0037275339,-0.0012258544,-0.0015827087,-0.0045748716,-0.0043150787,0.0033003294,-0.0009403517,0.000680261,0.003120384,-0.0012129276,0.0030820363,-0.0008099709,0.0016632294,0.0042433213,0.0002678065,-0.0022575015,-0.002347596,-0.004805308,0.0027276636,0.00087483705,-0.00047930924,-0.0048713274,-0.0014648205,0.0025656812,0.004034647,-0.0036041264,-0.003912857,-0.004274261,-0.0010488692,0.0014998716,-0.00076276634,-0.0018128097,-0.0010035179,0.00033940416,-0.0021371294,-0.0025229885,0.00086600136,-0.001086948,0.003017513,-0.0002634002,-0.004138321,-0.0035406433,0.002290898,-0.004311923,0.0021621538,0.0009728863,-0.0015263112,-0.0046391725,-0.004522497,0.0036198716,-0.0012201485,-0.0017233283,0.0011856102,0.00025730714,0.000824831,0.0043779137,-0.0048121824,0.004679961,0.0047856555,-0.004318938,0.0049500484,0.0016190138,-0.00438809,-0.00090980524,-0.0014537429,0.004733514,0.0035611356,-0.0038215357,0.004537845,-0.0014634894,0.0048020966,-0.00091961265,0.0046218312,-0.00028898375,-0.0011716798,-0.0015153703,0.0024931238,-0.00434165,-0.0005975933,-0.00045943743,0.0010005204,-0.0013362513,0.004460898,-0.0007276367,0.0043509877,0.002316674,0.0048239073,-0.00017556414,0.0014125864,0.00031565336,-0.0037540202,0.0042771064,0.0031079047,-0.0025628726,0.0006415815,-0.0020244478,0.0024599025,0.0037606738
BushGW_2006,-0.0046079666,-0.0014377384,-0.0046325475,0.003590524,0.004264191,-0.0040388554,-0.0015173729,0.002242548,-0.0008714957,0.0017410322,0.0028663117,-0.0016618522,-0.0030257911,0.0021504015,0.0015893898,0.004072164,-0.0038733587,-0.002010191,0.0011915469,0.004963963,0.0028335424,-0.0046175835,0.001985933,0.00025263958,0.0010928591,0.0038540277,0.0044254414,-0.0033305774,0.0048227133,0.0017675664,-0.0044117193,0.0026268084,-0.0003355638,-0.00015099409,-0.0010031378,0.002443132,0.0014445113,0.0006288907,-9.208113e-05,0.003162178,-0.0028007117,0.0046665184,0.0028828396,-0.0016504809,-0.0036717025,0.0025005797,-0.0024588513,-0.0003257505,-0.0025809167,-0.004368229,-0.0005226163,4.712543e-05,-0.0046377834,-0.004123499,0.0026451827,-0.0026233224,0.001732529,0.0037925804,0.0036361173,0.0014887007,0.0016662817,0.0021456976,-2.81737e-05,-0.0041661286,-0.0026285544,0.001020945,0.0030432844,-0.004492791,-0.0016360718,0.004328063,0.0009146992,0.004802302,-0.00093518733,-0.0032602097,0.00086489774,0.004134221,0.0002217364,-0.001432122,0.0027817667,-0.0032891142,-0.004032801,-0.00028126276,-0.0038923917,-0.003540299,0.0011259582,0.0017533457,0.00196139,0.0039094123,-0.00013078604,-0.004402366,0.0032284698,0.0029992382,-0.00044365597,0.002419567,0.0023999491,0.0030834067,0.0036522774,0.00040141845,-0.0018727139,0.0028127653
BushGW_2007,-0.004454799,0.00042178496,-0.00034415626,0.002960545,-7.459346e-05,-0.0019671773,0.004518116,-0.00081884157,-0.004378733,0.00039482844,0.0011835189,0.0007708219,0.002870063,-0.0029887788,0.0014882508,0.0042548757,0.0031499797,-0.0002661074,-0.003979646,-0.00042796688,0.0034256894,0.0029405996,0.0012204543,0.004214134,0.0014666605,-0.0048611728,-0.004168812,0.0035111615,-0.004439071,0.0047133933,0.003916693,-0.002998485,-0.0013712994,0.0008098823,0.00296184,0.00020874517,0.0044769333,0.00037289163,-0.0041721035,0.001031013,0.0034197746,-0.0014421743,-0.0019736234,-0.0013866475,-0.004889596,0.0047901133,-0.00064131245,0.0046163867,0.00076866493,0.0046752286,0.004513689,0.00029931523,0.00215087,0.001236077,0.00486217,0.0017588267,0.0040121437,-0.0030160567,0.003996646,-0.00016113593,0.0016737739,0.0024444046,0.004706596,0.0007936467,-0.0015229228,-0.0034858615,0.00038512747,-0.002777621,-0.004321708,0.00084950065,-0.0012084971,-0.0008887285,-0.0039538704,0.0020676465,-0.004054871,0.003882095,0.00392819,0.0038690162,0.0028613587,-0.001175315,0.0042811627,0.0046415897,-0.0025657758,-0.001956503,0.004733576,-0.0021381017,0.00012769466,0.0019721116,-0.00210682,0.0012668906,-0.00464071,0.0015308602,0.0018824156,-0.004681337,0.0021082542,0.0047924635,-0.004696712,0.0039995937,-0.00084786746,-0.0012511886
BushGW_2008,-0.0043343515,0.0014558929,0.0011662369,-0.002004981,0.0045918715,-0.0012724813,0.0044622533,0.0016854808,0.002412457,0.00088112196,-0.0010771777,0.0005245912,0.0016145885,0.002089297,-0.0033309145,0.00057530147,0.0022125135,0.004006239,0.0017062312,-0.0043618814,0.0038978485,-0.0042047696,0.0044992054,0.0028682817,-0.0041896487,0.0038391624,-0.002469236,-0.002405272,0.0017559214,0.004608277,0.00047042593,0.0021634225,-0.004589945,0.0005229173,-0.0032508601,0.0030161098,-0.0045335796,0.0048911483,-0.003110574,0.004521759,-0.0043095695,0.004211823,-0.004408296,-0.00235457,0.00425615,-0.0036023469,-0.0034956255,-0.0018655095,-0.002986729,-0.0021338672,-0.0025697546,-0.001956506,-0.001380047,-0.0018092094,0.00078789075,-0.002258061,0.0038224913,-0.0009746512,-0.00013780395,-0.00035312722,0.0027983,-0.0013167682,-0.002485705,0.0037207087,0.00033812659,0.0030206228,0.0011953342,0.0030132942,-0.003598543,-0.0041418523,0.0042625736,-0.0015261335,0.0023315286,0.002728505,-0.0041189706,-0.0033788735,0.0034542195,0.001932425,0.0037650852,-0.0026067258,-0.0043479335,-0.0031618432,0.0019940217,0.0029549594,-0.002292557,-5.5303753e-05,0.0031692272,-0.003607624,-0.00082992215,-0.003043724,0.004808168,-0.0030361966,0.0013037815,0.0026879604,-0.0011738952,-0.0039487556,0.0016947858,0.0031277689,0.004241634,-0.0013339437
BushG_1989,-0.001343759,0.00031615398,0.0043098726,0.0038546594,0.0012645823,0.0031052767,0.0028810161,0.0030552596,-0.0048969784,-0.00039725815,0.0014302763,0.0033877278,-0.0034083866,0.0039375047,-0.0032382244,0.0032028917,0.004734368,-0.0002079517,-0.0026589243,-0.0011966665,-0.0021055643,-0.0045232233,0.0046863183,0.00070546067,-0.0023769147,0.0038958422,0.0034276336,-0.00097465556,0.004276041,0.0032372335,-0.0026883509,0.0027954562,0.0039472617,-0.0010492433,-0.0031508284,0.00046954016,0.00041890194,-0.00287035,-0.0014539897,0.0006774672,0.0017986482,0.0020535586,0.0017463827,0.0037133954,-0.0004579595,0.0009210598,6.5530825e-05,-0.00018274583,-0.00350537,0.00070797955,0.00037738765,-0.0011660091,0.00025347935,-0.00017678335,0.0044935183,0.001539837,-0.0013139201,0.002745995,-0.004962302,-0.0021666815,0.0001300907,-0.0019183202,0.0011613057,0.0035074062,0.0027860536,0.004006549,0.0029566986,-0.004255485,0.0032890565,0.004765376,-0.00025984645,-0.0017547878,-0.0041072024,0.0013040137,0.00053150364,-0.0028453781,0.0006873189,0.0045535127,8.769914e-05,-0.0031862995,0.000923557,0.0014762775,-0.004646095,0.0020520797,0.004584759,0.0009992296,0.00025554383,4.56003e-05,0.0022482534,-0.0017981024,-0.0003234814,-0.0043452405,-0.00045361035,0.0045551676,0.0016786635,-0.0026329411,0.0036945678,-0.0014733394,-0.000273763,-0.0011529423
BushG_1990,0.00028692756,-0.0045126555,0.0042652492,0.004021777,0.0033789303,-0.0026491934,0.0007963797,-0.0035861726,-0.0037297893,0.0006868736,0.0023863944,-0.0014432207,-0.0035331657,0.0008593735,-0.0031042807,-0.004536377,-0.0035576494,0.0047233896,0.001743226,-0.0023719112,-0.0002203282,-0.002283551,-0.00076451496,0.0016361258,0.003188827,-0.00056817953,0.0024674276,-0.0023486374,-0.00029954378,-0.0014809715,-0.00054458244,-0.002130613,-0.00499679,0.0038105776,-0.002057761,-0.0027538084,0.0013189189,-0.0010680076,-0.0028511286,-0.00174597,-0.0019382773,0.0021076617,-0.0017406644,0.0033072191,-0.002014996,-0.004343483,0.00029064447,-0.0041772923,0.0004959476,-0.00012050919,0.00046624613,-0.0035643417,0.0019570426,-0.0036661406,-0.0047353883,-0.001020142,0.0013078023,-0.0007595741,0.0005516847,0.002308037,0.0035677857,-0.004318805,0.0011009081,0.0035097674,0.002712371,0.0016919477,-0.0006489162,-0.0022958552,0.0029376964,0.002661709,0.0013813899,-0.004316959,0.0012853217,0.0021183572,-0.0018698408,-0.00066045567,0.0031094453,0.0022592137,-0.0026789287,0.0029132592,-2.7241053e-05,-0.001333234,0.0036916872,0.0014905133,-0.0018867772,0.0023342264,-0.004445997,0.0047088233,0.0008405704,0.00346367,-0.0001184212,0.0036871731,-0.0029745,0.0034213436,-0.00039016173,-0.00015855872,-0.00047491188,-0.004462386,-0.0028152743,0.0017429488
BushG_1991,-0.0035794768,-0.00020246778,-0.0045297565,0.0018916341,0.004988129,0.0025833645,0.0046127005,0.0007558781,0.0023145357,0.00088886713,-0.00066872995,0.000996044,-0.004219515,-0.0033693132,0.004120566,-0.0034931449,-0.0018852716,-1.2463461e-05,0.0044366987,-0.0040167654,-0.003614207,-0.0021066177,0.0033965937,-0.0037164425,0.00015953931,-0.0046413853,-0.0048975484,0.003280362,-0.0042120432,-0.003260287,0.00438172,-0.004673518,-0.002853699,-0.0017242891,-0.00032735485,0.004996782,-0.0008222249,-0.0020102838,-0.0029939353,0.002698999,0.0038266608,-0.0017272294,0.0022475393,0.0007500179,0.0006393355,0.0035218385,0.0016000291,0.0046253228,0.002278267,-0.0042519514,-0.001374422,-0.004694856,0.004350155,-0.0026470576,0.0028461972,-0.001653082,-0.0025485053,-0.0016691689,-0.0016835807,0.0002643223,0.0042921407,0.00063666666,-0.003793514,-0.0042510056,0.0033812674,0.0035813996,0.00082206476,-0.0034080585,0.0020432768,-0.0017824285,0.002139314,0.0035276692,0.0021395998,0.004856323,-0.002461802,-0.0037384355,0.004502818,-0.0026194197,-0.004522519,-0.00047378734,0.0039405036,-0.004016437,0.0005235452,-0.0024950015,0.00011444615,0.0012747055,-0.0036225575,0.0018039289,0.0047787544,0.0037247904,0.00011735128,0.0046774345,-0.0038609658,0.004232744,0.0043227645,0.001792743,0.004778139,-0.0024030716,-0.00075245294,0.0010198574
BushG_1992,-0.0022884158,0.0020919554,-0.0031299356,0.0024396656,0.0028622004,0.00022540122,-0.0042315167,-0.0030101568,0.0016367465,-0.0032975243,0.0026627453,0.002799333,-0.0013224933,0.0038708374,-0.0031697908,-0.0042572957,0.0023106602,0.00045736373,-0.003860639,-0.0037122306,-0.0028768233,-0.00042578,0.00067337404,0.0029058885,-0.00075183104,0.002961454,0.00035013753,0.0042270035,0.003564047,-0.0024508478,-0.004347227,-0.0034906296,-0.004937477,0.0011701375,3.8970065e-05,-0.00011110518,0.002881193,0.00013034986,0.003438277,-0.0014278563,-0.0030308154,-0.0010322415,-0.0002388039,0.0033914964,-0.004022383,-0.0027877707,0.0012817399,-0.0005573352,0.0036612574,-0.0043680747,0.0031213749,0.0019799666,0.0012254163,0.0036093723,0.0019935088,-0.0014599492,0.003126994,-0.0049057533,-0.002741913,0.0002484475,-0.00106603,-0.0016178665,-0.0043421127,0.0032325953,0.002531288,0.000108617096,0.00040530265,-0.00070835516,0.0038212424,-0.002243219,-0.0014546512,-0.0018544304,0.004629091,-0.0012333082,-0.0049394304,0.00036587782,-0.0030229664,-0.0028541342,-0.0014060774,-0.0033363204,-0.0039796075,0.0049359547,-0.0016948465,-0.0027219423,-0.003975225,0.0046086186,0.0025783197,-0.0033327814,-0.0031980216,0.00439065,0.0036040393,-0.0014793812,-0.0039916565,-0.0035194007,0.0043631746,0.0011433931,0.0026103985,-0.0015082399,0.0014120396,0.0034096723
Ford_1975,0.000613185,0.0014114855,0.003185277,0.002010497,0.00022010441,-0.0027821723,0.0014476281,0.0033970852,-0.0032475682,-0.00032900024,-0.0028865298,0.0039296476,0.0010796392,0.0032898348,-0.0006001387,-0.002644038,0.002841234,-0.0048648277,-0.0024730966,0.0015897213,-0.0034221883,0.003314328,0.00221853,0.004046549,0.0038121052,0.0008191744,0.0030366944,0.001376911,-0.0009372058,-0.0032722675,0.0018336016,0.0048871124,0.0020840866,0.00067775534,0.0016949018,-0.003837087,0.0014753897,0.0042283814,0.0015469271,0.004779277,-0.0016255178,0.004723617,-0.004753167,-0.001432107,-0.002398391,0.00025001756,0.002794004,0.0006815053,-0.0009201369,0.004611268,0.0012039791,-0.0019494825,0.00100445,-0.00036995028,-0.00048129918,0.0020017375,0.0041019158,0.0018712485,0.004342698,0.0031202042,-0.0040973644,-0.0016645892,0.004668391,0.0048904144,0.0013917409,0.0033424355,0.0043033296,-0.003670725,0.0012247415,-0.0019300241,0.0038004199,-0.0028497747,0.0030042715,-0.0043277647,0.00398787,-0.003457483,0.0033600673,-0.0049535087,0.004562299,-0.0019488878,-0.0048326747,-0.0029451032,0.0046008388,-0.0032028942,0.0037961327,0.0043632067,0.002917544,-0.0046791555,0.0003999665,-0.0031394672,0.0016285585,-0.0035402558,-0.00033440432,-0.0014253379,0.0019352423,-0.0016178366,0.0029501521,-0.00030841152,-0.003404357,-0.00037458437
Ford_1976,0.0010875836,-0.00013647141,-0.0018677055,-0.0014805301,0.0006238503,0.0009316376,0.00047006737,0.0035185071,-0.0043537864,-0.001859099,0.0012317725,0.0031653694,0.000770931,0.00043978708,-0.0043702093,-0.0037775482,0.0013016992,0.0038646364,0.0046975277,0.0017958018,-0.0041535953,0.0008664737,0.002022275,-0.0038868592,0.0012639842,0.0027981948,0.0046624267,-0.0047143972,-0.0022076457,0.002284022,0.0037331774,-0.0038444663,-0.004943458,0.0036010616,0.00089578115,0.00083995087,-0.004380148,0.004699083,-0.0005300485,0.0021175367,0.0012775152,0.0020797877,0.0031025268,0.00014182943,0.000116039526,-0.0009624774,0.00412332,-0.0029558903,-0.001611854,-0.00073981786,-0.0038597148,0.0037716122,-0.0012467406,-0.0018585657,-0.0022263208,-0.00022267555,-0.0005840444,-0.0011829333,0.0035139667,-0.00072559284,-0.0032820378,0.0047214692,0.0015284835,-0.0010263262,-0.0020139967,-0.0032357639,0.00077187154,-0.0049754935,0.0005282303,0.00019444813,0.0037697698,-0.0009115272,-0.0045673135,0.0014873953,-0.0044074953,-0.00337534,-0.0031573705,-0.0049663596,-0.0018762585,0.0007540994,0.00034573307,-0.003477644,0.00013026675,-0.004654346,-0.004918481,-0.00066911324,0.0043340544,9.067482e-06,0.0007644688,0.0012959049,-0.0006537197,-0.0034640469,0.0001644882,-0.0017640047,0.0043943967,0.0026172088,0.0048912633,-0.0018599787,-0.0034813823,-0.0034864957
Nixon_1970,-0.0034497115,-0.0009396061,-0.002064388,-0.004258259,-0.0015988486,-0.0037398515,-0.0032803393,0.0034511394,-0.0021789283,0.003466382,-0.004394444,-0.002079951,0.0037609893,0.0039931233,0.0016067091,-0.0031153762,-0.0018458575,-0.002174107,-0.00052195834,0.0048115817,0.0015822608,0.004879422,-0.004574354,0.0016897381,0.00085317955,-0.004715001,-0.0049360073,0.0015988275,0.003573728,-0.00095961546,-0.000707729,-0.00058863114,0.0036099423,-0.002477567,-0.0049586925,0.0025609608,-0.0040685,-0.0009625984,-0.0024334858,0.0043902877,0.00047424043,-0.0043853214,-0.0018587541,0.004936174,0.0017366045,-0.0047760997,-0.0036513822,-0.0030361502,-0.0030871422,-0.0022603122,0.002795842,-0.0047353413,0.0007588187,0.0021084833,-0.0002512673,0.00019256343,0.0043751122,-0.0039377827,-0.00471312,-0.0011344921,-0.000113519105,-0.0038555076,-0.0015897,0.0024020732,-0.0024950462,0.0017515434,-0.00025723668,0.0048196134,-0.0034549441,-0.0033317963,0.003467923,0.0049683163,-0.0045173313,-0.0019175481,0.0037271867,-0.0027338834,-0.0030528293,0.0034691,0.0006661356,0.0009353306,-0.0010282939,-0.0048028477,0.0024222757,0.0017344599,0.003497054,-9.420711e-05,-0.003868562,-0.00042261631,-0.0008350379,-0.004822611,-0.0004019912,0.0018218665,7.3948366e-05,0.003382098,-0.0039533144,0.002490618,0.00025092202,-0.0013030418,0.00025434847,-0.0038756467
Nixon_1971,-0.002814353,0.0005091195,0.0017969952,-0.00043619017,-0.00029457652,-0.0031918704,0.00052541733,0.0044743796,-0.0028014546,-0.0017677984,-0.00040140026,0.0033519757,-0.0035588136,-0.0045448593,0.00019287413,-0.003982337,-0.0020789804,0.00072421855,0.0024575472,0.00046545762,0.0015363203,-0.004886862,0.00041411349,-0.0049562175,-0.0032029198,-0.0015702264,-0.0022955893,0.0037889602,-0.004585663,0.004738931,-0.002409407,-0.0018634595,0.004693322,0.004242366,-0.0045036143,0.0045929337,0.004160801,-0.004623892,-0.0036913338,-0.003838938,-0.0010974279,-0.0019872813,-0.003902604,0.00055716647,-0.0010456911,-0.0027647212,0.0014474675,-0.0019414837,0.004820369,-0.0014624328,0.0015996232,6.668971e-05,-0.0047949264,0.00077764725,-0.002044967,-0.002552203,-0.0014920618,0.0019999244,-0.00053773815,0.003670398,0.0017978996,-0.0042907884,-0.0029026745,0.0009360325,0.0027659796,0.0018621547,0.002061819,-0.0021496338,-0.0039917305,0.0011507766,-0.0014872786,0.001281407,0.001632648,-0.0018951845,-0.001115462,0.0037420478,0.002152065,0.0012996397,-0.004927567,0.0001195106,0.002322715,0.0044982308,-0.004342212,0.0013282408,-0.0007803316,0.0012522092,0.0026764194,-0.0020093292,-0.0022297904,-2.9218112e-05,0.0010720935,0.0037390597,0.0038597076,-0.0012700753,0.0015217554,0.00033430493,0.004036717,0.0004171503,0.0028602665,0.0011921151
Nixon_1972,0.0013704472,0.0048761233,0.003246279,0.004701996,0.0017670541,-0.0029698063,-0.0027878291,0.0044386745,0.0025085213,-0.0040561645,-0.0022779992,0.0033622105,0.0033546921,0.003232701,0.0026219469,-0.0021536162,0.0047567515,-0.0021602623,-0.0026352322,-0.0032623345,-0.0009184455,-0.0024233055,-0.004683363,0.0010316462,0.004101465,0.0005572448,0.0039914325,0.001665949,-0.0009454697,-0.0046957973,0.0026915264,-0.00061074324,0.0027733452,-0.004647807,0.0030234226,0.0007177793,-0.0044796285,-0.000605266,-0.0015478081,-0.004792878,-0.0020616772,0.00082366937,0.003568209,-0.0010105906,-0.0017739001,-0.0027894662,-0.0021448063,-0.002001379,0.00016709884,0.0008789976,0.0018666087,-0.0044762804,0.004410551,-0.00012971235,0.00051544147,0.00040574223,0.0016615235,0.004098375,-0.0043041664,-0.002675673,0.0005115211,-0.00274002,-0.0010492672,-0.0044953376,-0.0033072743,0.00029726562,-0.003206623,0.002292607,0.0014539016,0.0039729523,0.0012491114,0.0024510918,-0.004453561,-0.0024330087,-0.0008295041,-0.0003967731,0.0036191936,-8.186305e-06,0.003514579,-0.00038230445,0.0042554387,-0.0017846569,0.0006600474,0.0014067985,0.004721796,0.00059694116,0.004912906,-0.002440234,0.004884111,-0.0034086981,-0.00445963,-0.003105241,-0.004030601,0.0048893807,-2.5518635e-05,0.00055019563,-0.0040882854,-0.0046998616,-0.0019979384,0.0023270412
Nixon_1973,0.004270908,-0.0032583324,0.0012588805,0.0047785765,0.0022466714,0.0031236133,-0.0041706236,-0.0047005466,-0.0009078163,0.0030695985,-0.0039176983,-0.00112189,0.004288961,-0.0039168987,-0.0033185699,-0.003998609,-0.0028143218,-0.0037459484,0.0014403187,-0.003461611,0.00262219,0.0008942896,0.0045108404,-0.0038812559,0.0001444917,0.00023040475,-0.0022280412,0.000654947,-0.0013227992,-0.0013538898,0.002385257,0.003247515,-0.0038496654,0.0006813955,-0.00029450786,0.00085086457,0.00013962107,-0.0036955155,0.00038057123,-0.0040826616,-0.0029834935,0.0015619186,-0.0028307526,0.001849192,-0.0049769566,0.0014152719,0.003863797,-0.003737625,6.3880575e-06,0.00037150577,-0.0031319817,0.0011097367,0.0023968453,0.0045465287,-0.0028535537,0.0046888287,0.003389097,0.004559788,0.0048214863,-9.082997e-06,0.0033867876,0.001964187,0.0004042525,0.00409276,-0.0036419046,0.0049702725,-0.0005208045,0.0013294653,-0.0007542263,0.002446159,0.0015222736,-0.004310147,-0.0044733845,0.004338838,0.0017974552,0.004260868,0.0044977916,0.0036392007,-0.00037644562,0.0042813793,0.001925594,0.0018218774,0.004424473,0.002679333,0.0031827749,-0.0021311478,-0.00019759127,0.0042978413,0.0044249003,0.004239801,-0.0029350708,0.0028050884,-0.0049930215,0.0035886255,0.004219153,0.003034372,-0.0035741008,0.000407538,-0.001035437,-0.002383433
Nixon_1974,-0.004047938,-0.00040200225,-0.0016995881,-0.0026031174,0.0008011508,-0.0005837797,-7.5307405e-05,0.00047425926,-0.0029862358,0.003082145,0.00074347755,0.0027770181,0.0016732742,-0.0043257554,-0.0016060432,-0.0043462417,-0.004131964,-0.0035938781,0.0018302042,0.0044038133,0.0035309726,0.0026636978,0.004969221,-0.0034920415,0.0048707877,0.00076968514,-0.0019278737,-0.003906323,-0.0015603998,-0.0043056807,-0.003953092,0.00028094172,-0.0018194299,0.004982828,0.0033198164,0.0021279545,-0.0024440393,-0.0024400793,0.0039071906,-0.0026276195,-0.0028142987,0.0044849343,-0.003135988,0.00030433963,0.001954998,0.0025480175,-0.00066411437,-0.0037829059,0.00051980675,-0.0035549942,0.0029812527,0.0011336779,0.0039739795,0.0028902732,-0.0012484418,0.00027020572,0.0018395385,0.00035068401,0.0015616093,0.0048428793,-0.00099254,0.004171981,0.0011021694,0.0010132886,0.0018811132,0.0013792602,0.0025982044,0.0016556346,0.0006089853,0.0042989734,0.00064857194,0.0036662568,-0.003356043,-0.0028414696,0.0009219909,0.0036419597,-0.0023797764,-0.0015998788,-0.001800332,-0.0038022369,0.002984485,0.0039980896,0.00033615722,0.001890507,-0.0048793852,0.0024385515,-0.0008198155,0.0042634774,0.00459398,-0.0027512717,0.0011141963,0.0038679251,-0.001432708,-0.0043600127,0.004296969,0.0029358126,-0.00031228314,0.0005104632,-0.001997348,-0.00046884315
Reagan_1981,0.00052064285,0.0043395422,-0.0014802936,-0.004531616,0.0042842017,0.00024282293,0.0032152268,-0.0048705423,-0.0005528924,0.004780557,-6.486614e-05,-0.00021168847,1.5425154e-05,0.0039390926,0.004607476,0.0045290897,-0.0023904315,0.004859445,0.0040722867,0.004603274,0.0039326856,-0.004197189,0.002826765,-0.0006077999,0.0015337756,0.0044675176,-0.004406875,-0.0019476153,-0.0023131545,0.004346867,-0.0021018814,-0.00211274,-0.0044878186,-0.0017868046,-0.0047879703,0.00079743046,-0.0027293714,-0.00024213802,-0.0021076582,0.0013016084,0.0032071962,0.0034327097,0.0029151265,-0.0041012354,-0.00078306615,0.00169506,-0.00023948385,-0.004667555,-0.002325586,0.0043697716,-0.0029412098,0.0030734967,0.0015322878,0.004617954,0.0027741974,0.0016980101,-0.00073639676,0.002728815,0.0016405729,0.0009410502,-0.0017511933,0.0030934778,-0.003963198,-0.0029409835,-0.00335977,0.0013025858,0.00046989505,-0.0019849646,0.0028934428,0.00075897604,-0.0045650383,0.0029093204,0.0007864423,-0.0038464768,-0.0032802538,-0.0026541187,0.0047076675,0.0032397825,0.0023277507,0.004406707,-0.00490945,0.003699776,0.0029968175,-0.004796862,0.0013524179,-0.002136845,0.00081086485,-0.002061398,-0.00014666455,-0.0013243925,-0.00016971811,-0.0046805134,-0.001062604,0.0021495335,0.00058955955,-0.0045108995,0.0042735143,-0.004710189,-0.00081736274,0.002818755
Reagan_1982,0.0028230117,-0.00021132844,0.0024358225,0.0039356826,-0.0015573257,-0.003942317,-0.0023356746,0.0017665253,-0.0025340987,-0.0014235791,0.004041466,-0.0015532986,0.0032678714,-0.0045641894,0.003967643,0.0037153377,-0.002035952,0.0026348573,-0.003296471,-0.002790675,-0.0034155704,-0.0046321535,0.0030065067,0.0045958553,-0.0018655102,-0.004936458,-0.00097397284,0.0008329574,-0.0041500847,0.0031173693,-0.00037361906,-0.0045851236,0.0009101391,0.0015633531,-0.0036744706,0.004358044,0.004906646,0.0017367938,-0.0012442957,-0.0025164052,0.0005663395,0.004632747,0.0049014804,-0.0024478252,-0.0041841767,-0.0043410948,-0.0008629701,-0.00015124629,-0.0038251039,0.0012125229,-0.004482993,-0.0008873326,0.0020145588,0.0018394784,-0.0034350057,-0.004704078,0.0010616748,-0.001221785,0.003554287,0.0040451935,0.000767528,-0.004316277,0.0031646888,0.0036204418,-0.002669285,-0.00014121426,0.0018197047,-0.0015605635,0.0030310247,-0.0048426874,-0.003181895,-0.00062402524,0.0021323722,0.00027102072,-0.0036157002,-0.001019902,0.0028289577,0.0046714367,-0.0011579889,0.00042929797,-0.000991012,-0.0025507514,0.0015410068,-0.002249774,0.0038778554,-0.0018268083,0.00067175226,-0.0026116688,0.0024419855,-0.003808309,0.0027734688,-0.004440169,0.00070169405,-0.0030675558,0.0035934001,0.0022900265,-0.0022087987,0.00274516,-0.0010810662,-0.0019924124
Reagan_1983,-0.0008366689,-0.0008740372,-0.0013578996,0.0019578873,-0.00016272294,-0.0040850397,0.0048987465,-0.00413801,0.002965526,0.0032387106,-0.0045022005,0.0013166055,-0.0037353528,-0.0036147088,0.003489896,0.004251966,-0.0012622376,-0.002207271,0.004386922,-0.0030194966,0.0018589685,0.003022052,-0.0037749724,0.002978386,-0.001718285,-0.00489147,-0.0036320616,0.0046862992,-0.0036061732,0.0007336784,-0.0031918315,-0.0022202316,-0.003772045,-0.0027618825,-0.0001104071,-0.0028207824,0.002577758,-0.0020806983,-0.0034989545,0.00012583169,-0.0007458187,0.0038656285,-0.0031020083,0.0033787522,0.0038085831,-0.0004705972,0.003504124,0.0026343593,0.004233181,0.0014519277,-0.00058855116,-0.0011441451,0.00013361046,-0.0027047484,-0.0015968293,0.0012847016,0.0038116926,0.0018105713,0.0025033471,6.8246045e-05,-0.00039723908,0.0047903117,0.0025453076,-0.0032472578,0.0045220857,-0.0028208168,0.0021958738,0.00057546044,-0.004919581,0.0037087926,-0.0006074855,-0.000936381,0.0015218221,-0.0036265398,-0.0048759356,-0.0025369143,-0.0015761774,0.004655819,-0.0019249199,-0.0028609093,0.00019146885,0.0019665845,0.0019344649,0.003771282,0.00016859881,-0.0010475749,-0.0035295205,-0.0021224513,0.0029593974,0.003678024,0.004640805,0.0027461224,0.0007551696,-0.002166756,0.004358508,0.0018626853,0.00046327437,-0.004854245,-0.0027544715,-0.0030553215
Reagan_1984,-0.0026951684,0.0036063741,-0.0017234099,0.0023448246,0.0022777985,-0.0020991124,0.0023819022,-0.0013130881,-0.0040408606,0.0027548838,-0.0036575214,-0.00022269643,-0.00041759148,-0.0035609102,-0.0018725111,-0.002694038,0.0008340018,-0.0049570636,0.002687328,-0.0017899222,0.0021583643,0.000375979,0.0017496332,0.0045224368,0.00030174953,0.0019637297,0.0018025911,-0.0005862754,-0.0043554823,-0.00027098917,-0.002337465,-0.0025092815,0.0036980098,0.0048248973,-0.0026878316,-0.0030653349,-0.0022766045,0.0031961512,0.0046029054,0.0025851913,-0.0011615552,-0.0043136235,0.00300701,0.0040845177,-0.0018953307,-0.004932424,-9.423739e-05,-0.00079557695,0.0016674214,0.0008800032,0.004925357,-0.0023217474,-0.0042953356,0.0006676784,-0.00032533833,0.0042571104,-0.0039223405,-0.0019013755,0.0015004532,-0.00077129714,0.0041965675,-0.00028176044,-0.004539213,-0.0043926495,0.0023764032,0.0009833135,-0.0035089375,0.0030657656,-0.00079227,-0.0012289279,0.000118073396,-0.004705049,-0.0023103561,0.00094986364,-0.00017700311,-0.0021339804,0.0015004746,-0.001333373,0.00023932508,-0.0012144777,0.00061721,0.002491138,-0.0034104448,0.002622488,-0.0009720612,0.002524703,0.0011360216,0.0019035949,0.0018840546,-0.0047999206,-0.0047720363,-0.0025909385,-0.004426523,-0.003489398,0.0022817897,-0.000444733,0.001169982,-0.0039205723,-0.00020864475,0.0047708666
Reagan_1985,-0.002677271,0.0033928808,0.00336213,0.0024725888,-0.002499213,-0.0033501317,-0.0047232076,0.0017567544,0.0024147981,-0.00085004227,-0.0015062108,0.0028530983,0.0026408543,0.0025373588,-0.0038856196,-0.0028746412,-0.0049358746,-0.0028591438,0.0029898148,-0.0005899548,-0.0017243591,0.0031023885,-0.0019266034,0.0019356685,-0.0022361628,-0.0039185863,-0.0013248541,-0.004500489,-0.0018536948,-1.1720578e-05,-0.0028111541,0.002416611,0.0012802432,0.0028214622,0.004098207,0.0047113793,0.0018025875,-0.001494559,0.0040991115,0.0008624624,-0.0048733316,-0.0036609247,-0.002018753,-0.0026891502,0.0020954474,-0.00028195773,0.0016728918,0.004162156,0.0027654436,-0.002728939,-0.0006671212,-0.004300108,0.0023848328,0.004432574,-0.003212205,0.0012804489,-0.00476397,0.004736625,0.0037794102,0.00085372926,0.00013297657,0.0009499857,0.004398413,-0.00022274852,-0.002369146,0.00445069,-0.0027613812,-0.0005038117,-0.0033523815,-0.0049429056,-0.004429622,-0.0008030254,-0.0034461692,0.003681158,0.0037761638,0.00045020552,-0.0039067892,0.00061246887,0.0019523966,0.003140448,-0.0044385353,0.0019728504,0.0007797457,0.0046053454,0.00038959872,0.00015576162,-0.0034511394,0.001075059,-0.00027442235,-0.0011058722,-0.0019375127,-0.0049235974,-0.00025861265,0.0031224561,-0.0009999558,0.00040408465,-0.001218441,0.0042613596,-0.0017308726,0.0026800255
Reagan_1986,-0.00061698054,-0.0016106096,8.392731e-05,0.0013774735,-0.0019977747,-0.0036018058,-0.0037105596,-0.0004988637,-0.0010574633,0.0041042315,0.002514855,0.002318702,-0.004643755,-0.0031598285,0.00297038,-0.0012110415,2.4670502e-05,0.0026402825,0.0028581312,-0.004766453,-0.004944252,-0.0047759525,-0.0042311284,0.0003088695,-0.0010352645,0.0037890049,0.0030837508,0.0006908595,0.0044663446,0.0026262312,0.0029735656,0.0031378937,0.0034069237,-0.0046413895,0.0011023592,-6.857195e-06,-0.004398346,-0.0007519918,0.0049410085,-0.0022886312,-0.004165171,0.00049208145,0.004275876,-0.0028265482,0.002838408,-0.0018843181,-0.002082442,-0.0006001603,0.0012972268,0.0023539695,-0.0025412557,-0.004755852,-0.001487341,-0.003325371,0.0017034233,-0.0016445752,-0.0006594026,0.004130532,-0.00085599377,0.002739903,0.0029394804,-0.0021072305,0.0045124358,-0.0029682703,0.0005971877,-0.0011751669,-0.004939324,-0.0028822701,0.0019511703,-0.0010918729,-0.00086663116,-0.0005686844,0.002815096,0.003224665,0.0011086538,-0.004820299,0.0005142641,0.0023805818,-0.000121623714,0.0041389656,0.0035585223,-0.0037435028,-0.004693413,-0.0048259515,-0.003666449,-0.00060397346,0.0016483137,-0.0026887304,-0.0047123716,0.00020484076,0.0020640297,0.0001430645,-0.0037568696,0.0013066955,-0.00042545534,-0.0029146352,0.0027949382,0.0040733917,-4.63675e-05,0.001988103
Reagan_1987,0.0010559997,0.0024215118,0.00069494563,0.0041814055,0.0028136487,0.0010189512,-0.004908124,0.0035874837,-0.0037730294,-0.00095184334,0.0040309425,0.004388001,0.0012202552,-0.004685388,0.0016006633,-0.00046708772,-0.004436464,0.002162152,-0.0037007772,-0.0010271409,-0.00019656165,-0.0020505772,0.00015675816,-0.00312425,-0.0047515305,-0.0024081601,0.0031492126,0.004600521,-0.004891735,-0.0014680524,0.0042401403,0.0032621708,0.00065010303,0.003843568,0.00078489335,0.001989321,-0.0043512364,-0.0029893592,-0.0011433086,0.003489218,-0.003351788,-0.002093294,0.0027098202,-0.004282058,0.0013720521,0.00044693382,-0.0038062134,-0.0048336713,0.0036079898,0.004162139,-0.0030288491,0.0038813702,-0.0045159766,-0.0036575093,0.0038388257,0.0042123115,-0.000108054744,0.00054494885,0.00248182,-0.00223393,0.003816984,0.0015876989,0.0010122744,-0.0014698817,0.0012939455,0.00186831,-0.00035717033,-0.001123912,-0.00023496858,0.0034361882,0.0019159777,0.0048690494,-0.0024001624,0.0010495455,-0.0033298738,0.003164819,0.00026931067,0.0045339544,-0.002166939,-0.0034677444,0.0046930555,0.0038901935,-0.0034680648,-0.0022003623,-0.004118061,0.003869498,0.003984387,0.003988403,-0.004554698,0.0027262496,0.0024791267,0.00097253546,0.00042178328,-0.0007276292,-0.002398963,0.0016251036,0.004603325,0.0049945046,0.002877349,0.0036729625
Reagan_1988,0.003431349,-0.0010035023,0.0027363398,-0.004787987,-0.003494287,-0.0034840747,-0.003987894,-0.003584384,0.00021979197,0.0024229775,-0.0016718946,-0.00033468165,0.00049858575,0.004388888,0.00264019,0.0031178766,0.00053396635,-0.0038766675,-0.0032939846,-0.00042633645,0.0003265302,0.004335975,-0.0026294664,0.0016123792,0.0018575251,-0.00043501199,-0.00073407637,-0.00031440062,-0.0043806746,0.0049925023,0.0007737938,0.0017576236,0.0036174986,0.004937956,0.0016969382,-0.0016250494,0.0039236187,-2.3768043e-05,-0.0017017608,0.0034035225,-0.0011984975,0.0031868112,-0.0012719012,0.00024457832,0.0028453812,-0.001572999,0.004500954,-0.0022842132,0.00046493468,0.0013527883,-0.00069614727,-0.0029390433,-0.0010917735,-0.0042152554,0.0042440975,-0.001400606,0.0037059542,-0.0023343237,0.00430148,0.0015295461,0.00033816174,-0.004141248,0.004693014,-0.004776088,-0.0011128436,0.001565352,-0.0023499657,0.0042192508,-0.0027115864,-0.004744294,0.0031542673,-0.0037027162,-0.0033855357,0.0009272597,-0.0022710278,-0.004156839,-0.0024777595,0.0047006696,-0.003642022,0.0017228923,0.0014455238,0.004932583,-0.002458015,0.0049419776,-0.0002505538,-0.002667397,-0.0038387128,-0.0007541167,-0.00043902933,-0.0007900939,-0.0030714357,-0.00089664117,0.0012319197,0.003109334,0.00054554077,0.00015580493,0.004235464,-0.0048245075,-0.0029420028,-0.000798298
